GraphicEQ: 20 -9.2; 21 -9.3; 22 -9.5; 23 -9.8; 24 -10.0; 26 -10.5; 27 -10.7; 29 -11.0; 30 -11.2; 32 -11.5; 34 -11.8; 36 -12.0; 38 -12.2; 40 -12.4; 43 -12.5; 45 -12.6; 48 -12.7; 50 -12.7; 53 -12.7; 56 -12.7; 59 -12.7; 63 -12.8; 66 -12.8; 70 -12.8; 74 -12.8; 78 -12.8; 83 -12.8; 87 -12.7; 92 -12.5; 97 -12.3; 103 -12.0; 109 -11.7; 115 -11.5; 121 -11.2; 128 -11.0; 136 -10.7; 143 -10.5; 151 -10.2; 160 -9.8; 169 -9.4; 178 -9.1; 188 -8.8; 199 -8.5; 210 -8.2; 222 -7.7; 235 -7.2; 248 -6.7; 262 -6.2; 277 -5.9; 292 -5.7; 309 -5.4; 326 -5.4; 345 -5.7; 364 -6.3; 385 -6.8; 406 -7.3; 429 -7.9; 453 -8.5; 479 -9.1; 506 -9.7; 534 -10.1; 565 -10.3; 596 -10.4; 630 -10.4; 665 -10.3; 703 -10.1; 743 -9.9; 784 -9.7; 829 -9.4; 875 -9.2; 924 -9.1; 977 -9.0; 1032 -9.0; 1090 -8.8; 1151 -8.5; 1216 -8.0; 1284 -7.3; 1357 -6.6; 1433 -6.0; 1514 -5.4; 1599 -4.9; 1689 -4.2; 1784 -3.4; 1885 -2.7; 1991 -2.2; 2103 -1.9; 2221 -1.8; 2347 -1.8; 2479 -2.3; 2618 -2.9; 2766 -3.4; 2921 -3.7; 3086 -4.0; 3260 -3.8; 3443 -3.1; 3637 -2.3; 3842 -1.5; 4058 -0.7; 4287 -0.5; 4528 -0.5; 4783 -0.5; 5052 -1.2; 5337 -4.5; 5637 -6.6; 5955 -7.0; 6290 -7.8; 6644 -9.3; 7018 -10.6; 7414 -10.2; 7831 -7.8; 8272 -5.0; 8738 -3.0; 9230 -1.6; 9749 -0.8; 10298 -0.5; 10878 -0.5; 11490 -0.6; 12137 -1.2; 12821 -1.8; 13543 -2.5; 14305 -3.4; 15110 -4.4; 15961 -5.7; 16860 -7.3; 17809 -9.0; 18812 -10.9; 19871 -13.1