GraphicEQ: 20 -8.9; 21 -9.0; 22 -9.2; 23 -9.5; 24 -9.7; 26 -10.2; 27 -10.4; 29 -10.8; 30 -10.9; 32 -11.3; 34 -11.5; 36 -11.7; 38 -11.9; 40 -12.1; 43 -12.2; 45 -12.3; 48 -12.4; 50 -12.4; 53 -12.4; 56 -12.4; 59 -12.5; 63 -12.5; 66 -12.5; 70 -12.5; 74 -12.5; 78 -12.5; 83 -12.5; 87 -12.4; 92 -12.2; 97 -12.0; 103 -11.7; 109 -11.4; 115 -11.2; 121 -10.9; 128 -10.7; 136 -10.4; 143 -10.2; 151 -9.9; 160 -9.6; 169 -9.2; 178 -8.8; 188 -8.5; 199 -8.2; 210 -7.9; 222 -7.5; 235 -6.9; 248 -6.4; 262 -6.0; 277 -5.6; 292 -5.4; 309 -5.1; 326 -5.1; 345 -5.4; 364 -6.0; 385 -6.5; 406 -7.0; 429 -7.6; 453 -8.2; 479 -8.8; 506 -9.4; 534 -9.8; 565 -10.1; 596 -10.1; 630 -10.1; 665 -10.0; 703 -9.8; 743 -9.6; 784 -9.4; 829 -9.1; 875 -9.0; 924 -8.8; 977 -8.8; 1032 -8.7; 1090 -8.6; 1151 -8.2; 1216 -7.7; 1284 -7.0; 1357 -6.3; 1433 -5.7; 1514 -5.2; 1599 -4.6; 1689 -3.9; 1784 -3.1; 1885 -2.5; 1991 -1.9; 2103 -1.6; 2221 -1.5; 2347 -1.5; 2479 -2.0; 2618 -2.7; 2766 -3.1; 2921 -3.5; 3086 -3.7; 3260 -3.6; 3443 -2.8; 3637 -2.0; 3842 -1.2; 4058 -0.3; 4287 -0.2; 4528 -0.3; 4783 -1.2; 5052 -2.7; 5337 -4.7; 5637 -6.2; 5955 -6.7; 6290 -7.3; 6644 -7.9; 7018 -7.1; 7414 -5.5; 7831 -4.7; 8272 -4.3; 8738 -3.9; 9230 -3.5; 9749 -2.9; 10298 -2.6; 10878 -2.7; 11490 -2.9; 12137 -3.1; 12821 -3.5; 13543 -3.9; 14305 -4.5; 15110 -5.1; 15961 -5.8; 16860 -6.6; 17809 -7.5; 18812 -8.5; 19871 -9.5