frequency,raw
20.00,2.52
20.20,2.55
20.40,2.58
20.61,2.61
20.81,2.64
21.02,2.67
21.23,2.70
21.44,2.73
21.66,2.76
21.87,2.79
22.09,2.82
22.31,2.84
22.54,2.87
22.76,2.90
22.99,2.93
23.22,2.96
23.45,2.99
23.69,3.02
23.92,3.06
24.16,3.10
24.40,3.14
24.65,3.19
24.89,3.23
25.14,3.28
25.39,3.32
25.65,3.36
25.91,3.40
26.16,3.43
26.43,3.47
26.69,3.51
26.96,3.55
27.23,3.59
27.50,3.62
27.77,3.67
28.05,3.71
28.33,3.75
28.62,3.79
28.90,3.83
29.19,3.87
29.48,3.91
29.78,3.95
30.08,3.99
30.38,4.03
30.68,4.06
30.99,4.10
31.30,4.13
31.61,4.16
31.93,4.18
32.24,4.20
32.57,4.22
32.89,4.25
33.22,4.27
33.55,4.29
33.89,4.31
34.23,4.34
34.57,4.36
34.92,4.38
35.27,4.40
35.62,4.42
35.97,4.44
36.33,4.46
36.70,4.48
37.06,4.50
37.43,4.51
37.81,4.53
38.19,4.55
38.57,4.56
38.95,4.58
39.34,4.59
39.74,4.60
40.14,4.61
40.54,4.62
40.94,4.62
41.35,4.63
41.76,4.63
42.18,4.63
42.60,4.63
43.03,4.63
43.46,4.63
43.90,4.63
44.33,4.62
44.78,4.62
45.23,4.62
45.68,4.61
46.13,4.60
46.60,4.60
47.06,4.59
47.53,4.58
48.01,4.57
48.49,4.56
48.97,4.55
49.46,4.54
49.96,4.53
50.46,4.52
50.96,4.50
51.47,4.49
51.99,4.47
52.51,4.46
53.03,4.44
53.56,4.43
54.10,4.41
54.64,4.40
55.18,4.38
55.74,4.36
56.29,4.35
56.86,4.33
57.42,4.32
58.00,4.30
58.58,4.28
59.16,4.27
59.76,4.25
60.35,4.24
60.96,4.22
61.57,4.20
62.18,4.19
62.80,4.18
63.43,4.16
64.07,4.15
64.71,4.14
65.35,4.13
66.01,4.12
66.67,4.10
67.33,4.09
68.01,4.08
68.69,4.07
69.37,4.06
70.07,4.05
70.77,4.03
71.48,4.02
72.19,4.00
72.91,3.99
73.64,3.97
74.38,3.95
75.12,3.93
75.87,3.91
76.63,3.89
77.40,3.86
78.17,3.83
78.95,3.80
79.74,3.77
80.54,3.73
81.35,3.69
82.16,3.65
82.98,3.60
83.81,3.55
84.65,3.50
85.50,3.45
86.35,3.40
87.22,3.34
88.09,3.28
88.97,3.21
89.86,3.15
90.76,3.08
91.66,3.01
92.58,2.94
93.51,2.86
94.44,2.79
95.39,2.71
96.34,2.62
97.30,2.54
98.28,2.46
99.26,2.37
100.25,2.28
101.25,2.19
102.27,2.11
103.29,2.01
104.32,1.92
105.37,1.83
106.42,1.73
107.48,1.63
108.56,1.54
109.64,1.44
110.74,1.34
111.85,1.24
112.97,1.14
114.10,1.04
115.24,0.95
116.39,0.85
117.55,0.75
118.73,0.66
119.92,0.56
121.12,0.47
122.33,0.38
123.55,0.29
124.79,0.20
126.03,0.12
127.29,0.03
128.57,-0.05
129.85,-0.13
131.15,-0.21
132.46,-0.28
133.79,-0.36
135.12,-0.43
136.48,-0.50
137.84,-0.57
139.22,-0.63
140.61,-0.70
142.02,-0.77
143.44,-0.83
144.87,-0.90
146.32,-0.96
147.78,-1.03
149.26,-1.10
150.75,-1.17
152.26,-1.24
153.78,-1.31
155.32,-1.39
156.88,-1.47
158.44,-1.55
160.03,-1.63
161.63,-1.72
163.24,-1.81
164.88,-1.90
166.53,-2.00
168.19,-2.09
169.87,-2.19
171.57,-2.28
173.29,-2.38
175.02,-2.47
176.77,-2.56
178.54,-2.64
180.32,-2.73
182.13,-2.81
183.95,-2.89
185.79,-2.97
187.65,-3.05
189.52,-3.12
191.42,-3.20
193.33,-3.27
195.27,-3.35
197.22,-3.42
199.19,-3.50
201.18,-3.58
203.19,-3.65
205.23,-3.73
207.28,-3.81
209.35,-3.89
211.44,-3.97
213.56,-4.05
215.69,-4.13
217.85,-4.22
220.03,-4.30
222.23,-4.39
224.45,-4.48
226.70,-4.57
228.96,-4.66
231.25,-4.76
233.57,-4.85
235.90,-4.94
238.26,-5.02
240.64,-5.11
243.05,-5.18
245.48,-5.26
247.93,-5.33
250.41,-5.39
252.92,-5.45
255.45,-5.51
258.00,-5.56
260.58,-5.61
263.19,-5.65
265.82,-5.70
268.48,-5.73
271.16,-5.77
273.87,-5.80
276.61,-5.82
279.38,-5.84
282.17,-5.86
284.99,-5.87
287.84,-5.89
290.72,-5.90
293.63,-5.91
296.57,-5.92
299.53,-5.93
302.53,-5.94
305.55,-5.95
308.61,-5.97
311.69,-5.98
314.81,-5.98
317.96,-5.97
321.14,-5.96
324.35,-5.92
327.59,-5.87
330.87,-5.80
334.18,-5.71
337.52,-5.61
340.90,-5.50
344.30,-5.38
347.75,-5.25
351.23,-5.12
354.74,-5.00
358.28,-4.87
361.87,-4.75
365.49,-4.63
369.14,-4.52
372.83,-4.40
376.56,-4.29
380.33,-4.17
384.13,-4.06
387.97,-3.95
391.85,-3.83
395.77,-3.72
399.73,-3.60
403.72,-3.48
407.76,-3.36
411.84,-3.24
415.96,-3.12
420.12,-3.00
424.32,-2.87
428.56,-2.74
432.85,-2.61
437.18,-2.48
441.55,-2.34
445.96,-2.20
450.42,-2.06
454.93,-1.92
459.48,-1.77
464.07,-1.63
468.71,-1.49
473.40,-1.35
478.13,-1.21
482.91,-1.07
487.74,-0.94
492.62,-0.81
497.55,-0.68
502.52,-0.56
507.55,-0.44
512.62,-0.33
517.75,-0.22
522.93,-0.11
528.16,-0.02
533.44,0.07
538.77,0.16
544.16,0.24
549.60,0.32
555.10,0.39
560.65,0.46
566.25,0.52
571.92,0.58
577.64,0.63
583.41,0.68
589.25,0.72
595.14,0.76
601.09,0.80
607.10,0.83
613.17,0.86
619.30,0.88
625.50,0.90
631.75,0.92
638.07,0.93
644.45,0.94
650.89,0.95
657.40,0.95
663.98,0.95
670.62,0.95
677.32,0.94
684.10,0.93
690.94,0.92
697.85,0.91
704.83,0.89
711.87,0.87
718.99,0.86
726.18,0.84
733.44,0.81
740.78,0.79
748.19,0.77
755.67,0.75
763.23,0.72
770.86,0.70
778.57,0.67
786.35,0.64
794.22,0.61
802.16,0.58
810.18,0.55
818.28,0.52
826.46,0.49
834.73,0.45
843.08,0.42
851.51,0.39
860.02,0.35
868.62,0.32
877.31,0.28
886.08,0.25
894.94,0.22
903.89,0.19
912.93,0.16
922.06,0.14
931.28,0.11
940.59,0.09
950.00,0.07
959.50,0.05
969.09,0.03
978.78,0.02
988.57,0.01
998.46,0.00
1008.44,-0.01
1018.53,-0.01
1028.71,-0.02
1039.00,-0.03
1049.39,-0.03
1059.88,-0.04
1070.48,-0.05
1081.19,-0.07
1092.00,-0.08
1102.92,-0.10
1113.95,-0.12
1125.09,-0.15
1136.34,-0.18
1147.70,-0.21
1159.18,-0.24
1170.77,-0.27
1182.48,-0.30
1194.30,-0.34
1206.25,-0.37
1218.31,-0.40
1230.49,-0.43
1242.80,-0.47
1255.22,-0.50
1267.78,-0.53
1280.45,-0.57
1293.26,-0.60
1306.19,-0.63
1319.25,-0.67
1332.45,-0.70
1345.77,-0.74
1359.23,-0.77
1372.82,-0.80
1386.55,-0.83
1400.41,-0.86
1414.42,-0.89
1428.56,-0.91
1442.85,-0.94
1457.28,-0.95
1471.85,-0.97
1486.57,-0.98
1501.43,-0.98
1516.45,-0.98
1531.61,-0.98
1546.93,-0.97
1562.40,-0.96
1578.02,-0.94
1593.80,-0.93
1609.74,-0.92
1625.84,-0.91
1642.10,-0.91
1658.52,-0.92
1675.10,-0.94
1691.85,-0.96
1708.77,-0.98
1725.86,-1.00
1743.12,-1.02
1760.55,-1.03
1778.15,-1.03
1795.94,-1.03
1813.90,-1.02
1832.03,-1.00
1850.36,-0.98
1868.86,-0.95
1887.55,-0.92
1906.42,-0.89
1925.49,-0.85
1944.74,-0.81
1964.19,-0.78
1983.83,-0.73
2003.67,-0.69
2023.71,-0.65
2043.94,-0.59
2064.38,-0.54
2085.03,-0.47
2105.88,-0.40
2126.94,-0.33
2148.20,-0.24
2169.69,-0.15
2191.38,-0.06
2213.30,0.04
2235.43,0.13
2257.78,0.23
2280.36,0.31
2303.17,0.39
2326.20,0.47
2349.46,0.55
2372.95,0.64
2396.68,0.76
2420.65,0.91
2444.86,1.11
2469.31,1.34
2494.00,1.58
2518.94,1.80
2544.13,1.99
2569.57,2.15
2595.27,2.28
2621.22,2.40
2647.43,2.51
2673.90,2.62
2700.64,2.73
2727.65,2.84
2754.93,2.95
2782.48,3.07
2810.30,3.19
2838.40,3.31
2866.79,3.43
2895.46,3.54
2924.41,3.64
2953.65,3.73
2983.19,3.81
3013.02,3.87
3043.15,3.92
3073.58,3.95
3104.32,3.97
3135.36,3.97
3166.72,3.95
3198.38,3.90
3230.37,3.82
3262.67,3.70
3295.30,3.54
3328.25,3.35
3361.53,3.13
3395.15,2.89
3429.10,2.65
3463.39,2.41
3498.03,2.19
3533.01,1.99
3568.34,1.79
3604.02,1.60
3640.06,1.41
3676.46,1.20
3713.22,0.97
3750.36,0.72
3787.86,0.46
3825.74,0.19
3864.00,-0.11
3902.64,-0.41
3941.66,-0.72
3981.08,-1.05
4020.89,-1.39
4061.10,-1.75
4101.71,-2.12
4142.73,-2.50
4184.15,-2.90
4226.00,-3.33
4268.26,-3.77
4310.94,-4.23
4354.05,-4.71
4397.59,-5.22
4441.56,-5.75
4485.98,-6.27
4530.84,-6.76
4576.15,-7.19
4621.91,-7.52
4668.13,-7.70
4714.81,-7.80
4761.96,-7.82
4809.58,-7.79
4857.67,-7.69
4906.25,-7.52
4955.31,-7.10
5004.87,-6.43
5054.91,-5.57
5105.46,-4.47
5156.52,-3.37
5208.08,-2.36
5260.16,-1.57
5312.77,-1.10
5365.89,-0.82
5419.55,-0.73
5473.75,-0.75
5528.49,-0.78
5583.77,-0.80
5639.61,-0.75
5696.00,-0.66
5752.96,-0.54
5810.49,-0.40
5868.60,-0.25
5927.28,-0.09
5986.56,0.07
6046.42,0.25
6106.89,0.45
6167.96,0.68
6229.64,0.97
6291.93,1.30
6354.85,1.67
6418.40,2.08
6482.58,2.52
6547.41,2.98
6612.88,3.45
6679.01,3.92
6745.80,4.39
6813.26,4.85
6881.39,5.28
6950.21,5.67
7019.71,5.99
7089.91,6.21
7160.81,6.34
7232.41,6.38
7304.74,6.29
7377.79,6.13
7451.56,5.90
7526.08,5.57
7601.34,5.20
7677.35,4.79
7754.13,4.35
7831.67,3.91
7909.98,3.48
7989.08,3.08
8068.98,2.73
8149.67,2.42
8231.16,2.19
8313.47,2.10
8396.61,2.09
8480.57,2.17
8565.38,2.32
8651.03,2.42
8737.54,2.47
8824.92,2.27
8913.17,1.91
9002.30,1.39
9092.32,0.65
9183.25,-0.21
9275.08,-1.16
9367.83,-2.21
9461.51,-3.30
9556.12,-4.42
9651.68,-5.54
9748.20,-6.58
9845.68,-7.53
9944.14,-8.39
10043.58,-9.04
10144.02,-9.61
10245.46,-10.10
10347.91,-10.52
10451.39,-10.95
10555.91,-11.39
10661.46,-11.84
10768.08,-12.24
10875.76,-12.58
10984.52,-12.78
11094.36,-12.80
11205.31,-12.71
11317.36,-12.52
11430.53,-12.32
11544.84,-12.17
11660.29,-12.09
11776.89,-12.12
11894.66,-12.16
12013.60,-12.21
12133.74,-12.16
12255.08,-11.97
12377.63,-11.67
12501.41,-11.24
12626.42,-10.78
12752.68,-10.33
12880.21,-9.94
13009.01,-9.66
13139.10,-9.46
13270.49,-9.36
13403.20,-9.40
13537.23,-9.51
13672.60,-9.68
13809.33,-9.91
13947.42,-10.18
14086.90,-10.49
14227.77,-10.87
14370.04,-11.25
14513.74,-11.61
14658.88,-11.88
14805.47,-12.02
14953.52,-12.06
15103.06,-11.99
15254.09,-11.68
15406.63,-11.20
15560.70,-10.52
15716.30,-9.69
15873.47,-8.96
16032.20,-8.35
16192.52,-8.18
16354.45,-8.33
16517.99,-8.74
16683.17,-9.47
16850.01,-10.29
17018.51,-11.13
17188.69,-11.92
17360.58,-12.57
17534.18,-13.14
17709.53,-13.62
17886.62,-13.99
18065.49,-14.29
18246.14,-14.53
18428.60,-14.71
18612.89,-14.89
18799.02,-15.08
18987.01,-15.35
19176.88,-15.71
19368.65,-16.16
19562.33,-16.73
19757.96,-17.34
19955.54,-17.91
