frequency,raw
20,2.77
21,2.95
22,3.09
23,3.19
24,3.33
25,3.47
26,3.72
27,3.86
28,4.00
29,4.13
30,4.26
31,4.38
32,4.45
33,4.53
34,4.60
35,4.63
36,4.69
37,4.73
38,4.81
39,4.84
40,4.84
41,4.87
42,4.91
43,4.90
44,4.86
45,4.83
46,4.83
47,4.83
48,4.83
49,4.83
50,4.83
51,4.77
52,4.70
53,4.67
54,4.67
55,4.67
56,4.63
57,4.53
58,4.53
59,4.53
60,4.53
61,4.46
62,4.46
63,4.45
64,4.45
65,4.44
66,4.42
67,4.40
68,4.38
69,4.39
70,4.43
71,4.39
72,4.36
73,4.32
74,4.29
75,4.25
76,4.22
77,4.18
78,4.15
79,4.11
80,4.07
81,4.03
82,3.99
83,3.95
84,3.92
85,3.79
86,3.74
87,3.66
88,3.63
89,3.57
90,3.53
91,3.41
92,3.33
93,3.27
94,3.18
95,3.05
96,2.99
97,2.92
98,2.78
99,2.74
100,2.64
101,2.52
102,2.48
104,2.30
105,2.22
106,2.11
107,2.03
108,1.94
109,1.84
110,1.77
111,1.66
112,1.59
113,1.51
114,1.39
115,1.34
117,1.18
118,1.11
119,0.99
120,0.92
121,0.84
123,0.70
124,0.65
125,0.52
126,0.45
128,0.40
129,0.30
130,0.19
131,0.15
133,0.09
134,-0.01
135,-0.11
137,-0.15
138,-0.20
140,-0.28
141,-0.41
142,-0.45
144,-0.49
145,-0.53
147,-0.62
148,-0.71
150,-0.79
151,-0.83
153,-0.89
154,-0.96
156,-1.07
157,-1.12
159,-1.18
160,-1.26
162,-1.39
164,-1.48
165,-1.54
167,-1.69
169,-1.77
170,-1.82
172,-1.97
174,-2.05
175,-2.11
177,-2.25
179,-2.34
181,-2.46
183,-2.54
184,-2.61
186,-2.72
188,-2.79
190,-2.88
192,-2.98
194,-3.05
196,-3.16
198,-3.25
200,-3.34
202,-3.46
204,-3.56
206,-3.64
208,-3.73
210,-3.81
212,-3.88
214,-3.96
216,-4.03
218,-4.10
221,-4.23
223,-4.28
225,-4.36
227,-4.44
229,-4.55
232,-4.65
234,-4.75
236,-4.80
239,-4.93
241,-4.98
244,-5.10
246,-5.15
248,-5.20
251,-5.29
253,-5.29
256,-5.37
259,-5.43
261,-5.46
264,-5.51
266,-5.54
269,-5.62
272,-5.65
274,-5.65
277,-5.65
280,-5.66
283,-5.70
286,-5.72
288,-5.72
291,-5.72
294,-5.75
297,-5.79
300,-5.80
303,-5.83
306,-5.84
309,-5.81
312,-5.77
316,-5.78
319,-5.80
322,-5.79
325,-5.75
328,-5.68
332,-5.59
335,-5.52
338,-5.41
342,-5.29
345,-5.20
349,-5.03
352,-4.90
356,-4.84
359,-4.75
363,-4.59
366,-4.51
370,-4.35
374,-4.20
377,-4.08
381,-3.99
385,-3.87
389,-3.74
393,-3.62
397,-3.52
401,-3.41
405,-3.28
409,-3.18
413,-3.04
417,-2.92
421,-2.82
425,-2.71
430,-2.58
434,-2.46
438,-2.33
443,-2.21
447,-2.09
451,-1.96
456,-1.78
460,-1.66
465,-1.50
470,-1.36
474,-1.26
479,-1.12
484,-0.94
489,-0.81
494,-0.68
499,-0.58
504,-0.45
509,-0.31
514,-0.23
519,-0.12
524,-0.02
529,0.07
535,0.13
540,0.25
545,0.33
551,0.40
556,0.44
562,0.50
568,0.60
573,0.63
579,0.67
585,0.73
591,0.76
596,0.80
602,0.83
608,0.86
615,0.89
621,0.92
627,0.95
633,0.93
639,0.94
646,0.97
652,0.98
659,1.01
665,1.01
672,0.98
679,0.98
686,0.93
692,0.90
699,0.86
706,0.81
713,0.76
721,0.77
728,0.79
735,0.78
742,0.74
750,0.75
757,0.74
765,0.73
773,0.66
780,0.66
788,0.65
796,0.59
804,0.58
812,0.55
820,0.48
828,0.46
837,0.42
845,0.38
853,0.39
862,0.34
871,0.31
879,0.30
888,0.26
897,0.22
906,0.23
915,0.15
924,0.13
933,0.15
943,0.07
952,0.07
962,0.07
971,0.04
981,0.03
991,-0.00
1001,-0.00
1011,-0.02
1021,-0.02
1031,-0.02
1041,-0.04
1052,-0.05
1062,-0.06
1073,-0.11
1084,-0.08
1094,-0.09
1105,-0.06
1116,-0.11
1128,-0.16
1139,-0.19
1150,-0.24
1162,-0.28
1173,-0.33
1185,-0.35
1197,-0.36
1209,-0.37
1221,-0.47
1233,-0.45
1246,-0.49
1258,-0.54
1271,-0.57
1283,-0.62
1296,-0.65
1309,-0.70
1322,-0.74
1335,-0.77
1349,-0.80
1362,-0.81
1376,-0.87
1390,-0.90
1404,-0.90
1418,-0.97
1432,-0.98
1446,-0.98
1461,-1.04
1475,-1.01
1490,-1.05
1505,-1.07
1520,-1.03
1535,-1.01
1550,-1.02
1566,-1.03
1582,-1.00
1597,-1.00
1613,-1.01
1629,-0.99
1646,-1.02
1662,-1.01
1679,-1.05
1696,-1.07
1713,-1.07
1730,-1.12
1747,-1.12
1764,-1.15
1782,-1.18
1800,-1.17
1818,-1.13
1836,-1.11
1854,-1.13
1873,-1.14
1892,-1.09
1911,-1.08
1930,-1.05
1949,-1.08
1969,-1.01
1988,-0.99
2008,-0.95
2028,-0.95
2048,-0.88
2069,-0.83
2090,-0.76
2111,-0.71
2132,-0.68
2153,-0.63
2175,-0.57
2196,-0.53
2218,-0.52
2240,-0.47
2263,-0.47
2285,-0.44
2308,-0.38
2331,-0.36
2355,-0.28
2378,-0.20
2402,-0.07
2426,0.11
2450,0.36
2475,0.68
2500,0.98
2525,1.26
2550,1.49
2575,1.69
2601,1.88
2627,2.05
2653,2.15
2680,2.31
2707,2.39
2734,2.50
2761,2.60
2789,2.66
2817,2.82
2845,2.99
2873,3.17
2902,3.35
2931,3.52
2960,3.69
2990,3.87
3020,4.03
3050,4.12
3080,4.20
3111,4.20
3142,4.24
3174,4.18
3206,4.14
3238,4.01
3270,3.87
3303,3.76
3336,3.61
3369,3.41
3403,3.21
3437,2.99
3471,2.79
3506,2.56
3541,2.38
3576,2.11
3612,1.92
3648,1.68
3685,1.41
3721,1.16
3759,0.90
3796,0.62
3834,0.38
3873,0.12
3911,-0.12
3950,-0.41
3990,-0.69
4030,-0.99
4070,-1.36
4111,-1.72
4152,-2.05
4193,-2.41
4235,-2.87
4278,-3.32
4321,-3.72
4364,-4.17
4407,-4.74
4451,-5.44
4496,-6.14
4541,-6.73
4586,-7.12
4632,-7.42
4679,-7.66
4725,-7.86
4773,-7.98
4820,-8.02
4868,-8.02
4917,-7.85
4966,-7.43
5016,-6.81
5066,-5.86
5117,-4.88
5168,-3.80
5220,-2.82
5272,-1.97
5325,-1.40
5378,-1.04
5432,-0.86
5486,-0.81
5541,-0.81
5596,-0.77
5652,-0.76
5709,-0.66
5766,-0.51
5823,-0.36
5882,-0.15
5940,0.13
6000,0.41
6060,0.67
6120,1.04
6182,1.39
6244,1.75
6306,2.11
6369,2.62
6433,3.05
6497,3.52
6562,3.95
6628,4.34
6694,4.71
6761,5.07
6828,5.33
6897,5.56
6966,5.75
7035,5.93
7106,6.07
7177,6.15
7249,6.05
7321,5.90
7394,5.66
7468,5.38
7543,5.04
7618,4.67
7694,4.28
7771,3.88
7849,3.48
7928,3.17
8007,2.26
8087,2.12
8168,1.96
8250,1.86
8332,1.78
8415,1.84
8499,2.05
8584,2.30
8670,2.58
8757,2.79
8845,2.97
8933,3.06
9022,3.00
9113,2.86
9204,2.28
9296,1.29
9389,-0.02
9483,-1.44
9577,-2.80
9673,-4.08
9770,-5.26
9868,-6.30
9966,-7.22
10066,-8.06
10167,-8.77
10268,-9.43
10371,-10.04
10475,-10.67
10579,-11.31
10685,-11.92
10792,-12.56
10900,-13.27
11009,-13.62
11119,-13.87
11230,-13.95
11343,-13.94
11456,-14.03
11571,-14.28
11686,-14.44
11803,-14.38
11921,-13.96
12040,-13.16
12161,-12.27
12282,-11.48
12405,-10.93
12529,-10.29
12655,-9.79
12781,-9.45
12909,-9.18
13038,-8.86
13168,-8.47
13300,-8.40
13433,-8.39
13567,-8.52
13703,-8.77
13840,-9.13
13978,-9.61
14118,-10.14
14259,-10.60
14402,-11.03
14546,-11.37
14692,-11.67
14838,-11.52
14987,-12.08
15137,-11.81
15288,-11.44
15441,-10.92
15595,-10.33
15751,-9.65
15909,-8.91
16068,-8.35
16229,-8.15
16391,-8.22
16555,-8.62
16720,-9.35
16888,-10.03
17056,-11.02
17227,-11.69
17399,-12.36
17573,-12.95
17749,-13.42
17926,-13.79
18106,-14.15
18287,-14.39
18470,-14.60
18654,-14.78
18841,-14.98
19029,-15.25
19220,-15.61
19412,-16.03
19606,-16.60
19802,-17.23
20000,-17.86
