frequency,raw
20,2.42
21,2.56
22,2.70
23,2.83
24,2.97
25,3.15
26,3.31
27,3.45
28,3.60
29,3.74
30,3.87
31,4.00
32,4.08
33,4.15
34,4.22
35,4.28
36,4.34
37,4.39
38,4.44
39,4.48
40,4.50
41,4.52
42,4.53
43,4.53
44,4.52
45,4.52
46,4.50
47,4.49
48,4.47
49,4.45
50,4.42
51,4.40
52,4.37
53,4.34
54,4.31
55,4.29
56,4.26
57,4.23
58,4.20
59,4.18
60,4.15
61,4.14
62,4.13
63,4.13
64,4.13
65,4.12
66,4.10
67,4.07
68,4.04
69,4.01
70,3.98
71,3.95
72,3.93
73,3.91
74,3.90
75,3.88
76,3.85
77,3.80
78,3.76
79,3.72
80,3.69
81,3.65
82,3.60
83,3.54
84,3.48
85,3.42
86,3.35
87,3.28
88,3.21
89,3.15
90,3.07
91,2.99
92,2.92
93,2.84
94,2.76
95,2.67
96,2.59
97,2.52
98,2.43
99,2.34
100,2.24
101,2.14
102,2.03
104,1.84
105,1.75
106,1.67
107,1.59
108,1.51
109,1.44
110,1.35
111,1.26
112,1.17
113,1.08
114,0.98
115,0.90
117,0.72
118,0.63
119,0.55
120,0.48
121,0.41
123,0.30
124,0.25
125,0.18
126,0.11
128,-0.04
129,-0.13
130,-0.21
131,-0.27
133,-0.39
134,-0.42
135,-0.46
137,-0.55
138,-0.60
140,-0.71
141,-0.77
142,-0.83
144,-0.93
145,-0.98
147,-1.05
148,-1.09
150,-1.16
151,-1.20
153,-1.30
154,-1.36
156,-1.48
157,-1.54
159,-1.66
160,-1.71
162,-1.80
164,-1.89
165,-1.95
167,-2.05
169,-2.17
170,-2.23
172,-2.36
174,-2.48
175,-2.53
177,-2.65
179,-2.76
181,-2.86
183,-2.95
184,-2.99
186,-3.06
188,-3.12
190,-3.19
192,-3.28
194,-3.36
196,-3.46
198,-3.55
200,-3.64
202,-3.72
204,-3.80
206,-3.87
208,-3.95
210,-4.01
212,-4.08
214,-4.14
216,-4.20
218,-4.27
221,-4.38
223,-4.47
225,-4.56
227,-4.65
229,-4.75
232,-4.88
234,-4.96
236,-5.03
239,-5.13
241,-5.20
244,-5.29
246,-5.35
248,-5.40
251,-5.48
253,-5.52
256,-5.59
259,-5.65
261,-5.69
264,-5.74
266,-5.77
269,-5.81
272,-5.85
274,-5.87
277,-5.90
280,-5.92
283,-5.93
286,-5.95
288,-5.96
291,-5.97
294,-5.98
297,-5.99
300,-6.00
303,-6.01
306,-6.02
309,-6.03
312,-6.04
316,-6.04
319,-6.03
322,-6.01
325,-5.97
328,-5.91
332,-5.82
335,-5.74
338,-5.65
342,-5.51
345,-5.40
349,-5.25
352,-5.14
356,-5.00
359,-4.90
363,-4.76
366,-4.66
370,-4.53
374,-4.41
377,-4.31
381,-4.19
385,-4.07
389,-3.96
393,-3.84
397,-3.72
401,-3.61
405,-3.49
409,-3.37
413,-3.26
417,-3.14
421,-3.02
425,-2.90
430,-2.76
434,-2.65
438,-2.53
443,-2.39
447,-2.28
451,-2.15
456,-1.97
460,-1.83
465,-1.63
470,-1.45
474,-1.32
479,-1.17
484,-1.04
489,-0.93
494,-0.81
499,-0.69
504,-0.58
509,-0.46
514,-0.34
519,-0.23
524,-0.13
529,-0.04
535,0.07
540,0.14
545,0.21
551,0.29
556,0.36
562,0.43
568,0.49
573,0.54
579,0.59
585,0.65
591,0.69
596,0.72
602,0.75
608,0.79
615,0.82
621,0.83
627,0.86
633,0.87
639,0.88
646,0.89
652,0.90
659,0.90
665,0.90
672,0.89
679,0.88
686,0.87
692,0.86
699,0.84
706,0.82
713,0.79
721,0.77
728,0.76
735,0.75
742,0.76
750,0.75
757,0.75
765,0.72
773,0.70
780,0.66
788,0.63
796,0.58
804,0.53
812,0.48
820,0.43
828,0.38
837,0.34
845,0.31
853,0.28
862,0.27
871,0.25
879,0.23
888,0.20
897,0.16
906,0.14
915,0.10
924,0.07
933,0.04
943,0.02
952,0.01
962,-0.01
971,-0.01
981,-0.00
991,-0.00
1001,0.00
1011,0.00
1021,-0.01
1031,-0.03
1041,-0.05
1052,-0.07
1062,-0.09
1073,-0.10
1084,-0.12
1094,-0.13
1105,-0.15
1116,-0.18
1128,-0.21
1139,-0.24
1150,-0.27
1162,-0.30
1173,-0.32
1185,-0.34
1197,-0.36
1209,-0.37
1221,-0.40
1233,-0.44
1246,-0.48
1258,-0.53
1271,-0.57
1283,-0.60
1296,-0.65
1309,-0.70
1322,-0.74
1335,-0.78
1349,-0.82
1362,-0.85
1376,-0.89
1390,-0.91
1404,-0.93
1418,-0.94
1432,-0.93
1446,-0.93
1461,-0.94
1475,-0.95
1490,-0.96
1505,-0.98
1520,-0.99
1535,-1.00
1550,-1.00
1566,-1.00
1582,-0.99
1597,-0.98
1613,-0.97
1629,-0.97
1646,-0.98
1662,-0.98
1679,-0.99
1696,-1.00
1713,-1.02
1730,-1.03
1747,-1.03
1764,-1.03
1782,-1.03
1800,-1.02
1818,-1.01
1836,-1.01
1854,-1.00
1873,-0.97
1892,-0.94
1911,-0.91
1930,-0.86
1949,-0.83
1969,-0.79
1988,-0.75
2008,-0.70
2028,-0.63
2048,-0.57
2069,-0.49
2090,-0.42
2111,-0.35
2132,-0.27
2153,-0.18
2175,-0.09
2196,0.00
2218,0.11
2240,0.20
2263,0.30
2285,0.38
2308,0.45
2331,0.50
2355,0.56
2378,0.63
2402,0.77
2426,0.94
2450,1.15
2475,1.42
2500,1.67
2525,1.91
2550,2.10
2575,2.25
2601,2.38
2627,2.48
2653,2.56
2680,2.65
2707,2.74
2734,2.82
2761,2.92
2789,3.02
2817,3.14
2845,3.25
2873,3.35
2902,3.47
2931,3.56
2960,3.64
2990,3.72
3020,3.79
3050,3.87
3080,3.91
3111,3.93
3142,3.93
3174,3.88
3206,3.78
3238,3.66
3270,3.51
3303,3.31
3336,3.09
3369,2.88
3403,2.65
3437,2.46
3471,2.26
3506,2.09
3541,1.92
3576,1.76
3612,1.57
3648,1.37
3685,1.14
3721,0.88
3759,0.59
3796,0.30
3834,-0.01
3873,-0.31
3911,-0.62
3950,-0.93
3990,-1.27
4030,-1.61
4070,-1.96
4111,-2.35
4152,-2.75
4193,-3.17
4235,-3.61
4278,-4.08
4321,-4.55
4364,-4.99
4407,-5.46
4451,-5.93
4496,-6.40
4541,-6.82
4586,-7.18
4632,-7.47
4679,-7.62
4725,-7.71
4773,-7.75
4820,-7.75
4868,-7.66
4917,-7.47
4966,-7.06
5016,-6.31
5066,-5.37
5117,-4.27
5168,-3.18
5220,-2.24
5272,-1.48
5325,-1.10
5378,-0.88
5432,-0.78
5486,-0.80
5541,-0.80
5596,-0.79
5652,-0.76
5709,-0.71
5766,-0.63
5823,-0.54
5882,-0.41
5940,-0.28
6000,-0.14
6060,0.06
6120,0.27
6182,0.50
6244,0.80
6306,1.12
6369,1.50
6433,1.95
6497,2.43
6562,2.94
6628,3.44
6694,3.94
6761,4.43
6828,4.92
6897,5.35
6966,5.75
7035,6.11
7106,6.32
7177,6.47
7249,6.50
7321,6.37
7394,6.16
7468,5.87
7543,5.50
7618,5.10
7694,4.68
7771,4.26
7849,3.85
7928,3.47
8007,3.11
8087,2.81
8168,2.57
8250,2.36
8332,2.26
8415,2.19
8499,2.15
8584,2.15
8670,2.07
8757,1.90
8845,1.55
8933,1.21
9022,0.67
9113,-0.23
9204,-0.96
9296,-1.64
9389,-2.86
9483,-4.10
9577,-5.18
9673,-6.23
9770,-7.20
9868,-8.08
9966,-8.84
10066,-9.43
10167,-9.89
10268,-10.28
10371,-10.66
10475,-11.08
10579,-11.46
10685,-11.81
10792,-12.13
10900,-12.40
11009,-12.61
11119,-12.59
11230,-12.44
11343,-12.06
11456,-11.57
11571,-11.81
11686,-12.27
11803,-12.05
11921,-12.26
12040,-12.58
12161,-12.35
12282,-12.18
12405,-11.89
12529,-11.41
12655,-10.94
12781,-10.55
12909,-10.23
13038,-10.02
13168,-9.91
13300,-9.76
13433,-9.63
13567,-9.65
13703,-9.77
13840,-10.09
13978,-10.44
14118,-10.81
14259,-11.21
14402,-11.58
14546,-11.89
14692,-12.14
14838,-12.23
14987,-12.22
15137,-12.12
15288,-11.77
15441,-11.21
15595,-10.51
15751,-9.70
15909,-9.01
16068,-8.50
16229,-8.34
16391,-8.60
16555,-9.09
16720,-9.81
16888,-10.67
17056,-11.49
17227,-12.27
17399,-12.89
17573,-13.44
17749,-13.90
17926,-14.25
18106,-14.53
18287,-14.76
18470,-14.94
18654,-15.12
18841,-15.33
19029,-15.59
19220,-15.99
19412,-16.47
19606,-17.04
19802,-17.65
20000,-18.19
