GraphicEQ: 20 -7.1; 21 -7.2; 22 -7.2; 23 -7.4; 24 -7.5; 26 -7.9; 27 -8.0; 29 -8.4; 30 -8.5; 32 -8.7; 34 -8.9; 36 -9.1; 38 -9.3; 40 -9.4; 43 -9.5; 45 -9.6; 48 -9.6; 50 -9.7; 53 -9.8; 56 -9.8; 59 -9.8; 63 -9.9; 66 -10.0; 70 -10.1; 74 -10.2; 78 -10.3; 83 -10.2; 87 -10.2; 92 -10.0; 97 -9.8; 103 -9.6; 109 -9.3; 115 -9.1; 121 -8.9; 128 -8.6; 136 -8.5; 143 -8.3; 151 -8.2; 160 -8.0; 169 -7.7; 178 -7.4; 188 -7.1; 199 -6.9; 210 -6.6; 222 -6.1; 235 -5.6; 248 -5.1; 262 -4.7; 277 -4.4; 292 -4.3; 309 -4.1; 326 -4.0; 345 -4.5; 364 -5.0; 385 -5.6; 406 -6.2; 429 -6.8; 453 -7.5; 479 -8.2; 506 -8.8; 534 -9.3; 565 -9.6; 596 -9.8; 630 -9.8; 665 -9.8; 703 -9.7; 743 -9.5; 784 -9.3; 829 -9.1; 875 -8.9; 924 -8.7; 977 -8.6; 1032 -8.4; 1090 -8.2; 1151 -7.9; 1216 -7.5; 1284 -7.0; 1357 -6.4; 1433 -5.9; 1514 -5.4; 1599 -5.0; 1689 -4.4; 1784 -3.7; 1885 -3.2; 1991 -2.7; 2103 -2.5; 2221 -2.4; 2347 -2.4; 2479 -2.8; 2618 -3.5; 2766 -3.9; 2921 -4.3; 3086 -4.5; 3260 -4.2; 3443 -3.2; 3637 -2.2; 3842 -1.1; 4058 -0.3; 4287 -0.2; 4528 -0.3; 4783 -1.4; 5052 -2.8; 5337 -4.2; 5637 -5.2; 5955 -6.3; 6290 -7.9; 6644 -9.7; 7018 -9.7; 7414 -8.5; 7831 -7.9; 8272 -7.6; 8738 -7.4; 9230 -6.9; 9749 -6.0; 10298 -5.5; 10878 -5.6; 11490 -5.6; 12137 -5.7; 12821 -5.9; 13543 -6.1; 14305 -6.3; 15110 -6.6; 15961 -6.9; 16860 -7.2; 17809 -7.6; 18812 -8.0; 19871 -8.5