GraphicEQ: 20 -7.0; 21 -7.2; 22 -7.4; 23 -7.6; 24 -7.8; 26 -8.3; 27 -8.5; 29 -8.9; 30 -9.1; 32 -9.4; 34 -9.7; 36 -9.9; 38 -10.1; 40 -10.3; 43 -10.4; 45 -10.5; 48 -10.6; 50 -10.7; 53 -10.7; 56 -10.8; 59 -10.8; 63 -10.9; 66 -10.9; 70 -11.0; 74 -11.1; 78 -11.2; 83 -11.2; 87 -11.2; 92 -11.1; 97 -11.0; 103 -10.8; 109 -10.6; 115 -10.4; 121 -10.3; 128 -10.1; 136 -10.0; 143 -9.8; 151 -9.6; 160 -9.3; 169 -9.0; 178 -8.6; 188 -8.4; 199 -8.1; 210 -7.8; 222 -7.4; 235 -6.9; 248 -6.4; 262 -6.0; 277 -5.7; 292 -5.4; 309 -5.2; 326 -5.1; 345 -5.5; 364 -6.1; 385 -6.6; 406 -7.1; 429 -7.7; 453 -8.3; 479 -8.9; 506 -9.5; 534 -9.9; 565 -10.2; 596 -10.3; 630 -10.2; 665 -10.1; 703 -9.9; 743 -9.7; 784 -9.5; 829 -9.2; 875 -9.1; 924 -8.9; 977 -8.9; 1032 -8.8; 1090 -8.7; 1151 -8.3; 1216 -7.8; 1284 -7.1; 1357 -6.4; 1433 -5.8; 1514 -5.3; 1599 -4.7; 1689 -4.0; 1784 -3.2; 1885 -2.6; 1991 -2.0; 2103 -1.7; 2221 -1.6; 2347 -1.6; 2479 -2.1; 2618 -2.8; 2766 -3.2; 2921 -3.6; 3086 -3.8; 3260 -3.7; 3443 -2.9; 3637 -2.1; 3842 -1.3; 4058 -0.4; 4287 -0.2; 4528 -0.3; 4783 -1.4; 5052 -2.8; 5337 -4.8; 5637 -6.3; 5955 -6.8; 6290 -7.4; 6644 -8.0; 7018 -7.2; 7414 -5.6; 7831 -4.8; 8272 -4.4; 8738 -4.0; 9230 -3.6; 9749 -3.0; 10298 -2.7; 10878 -2.8; 11490 -3.0; 12137 -3.2; 12821 -3.6; 13543 -4.0; 14305 -4.6; 15110 -5.2; 15961 -5.9; 16860 -6.7; 17809 -7.6; 18812 -8.6; 19871 -9.6