frequency,raw
20.00,2.53
20.20,2.55
20.40,2.57
20.61,2.61
20.81,2.64
21.02,2.66
21.23,2.70
21.44,2.73
21.66,2.75
21.87,2.78
22.09,2.82
22.31,2.84
22.54,2.87
22.76,2.90
22.99,2.93
23.22,2.95
23.45,2.99
23.69,3.02
23.92,3.06
24.16,3.10
24.40,3.14
24.65,3.18
24.89,3.23
25.14,3.27
25.39,3.31
25.65,3.35
25.91,3.39
26.16,3.43
26.43,3.47
26.69,3.51
26.96,3.55
27.23,3.59
27.50,3.62
27.77,3.66
28.05,3.71
28.33,3.75
28.62,3.79
28.90,3.83
29.19,3.86
29.48,3.91
29.78,3.95
30.08,3.99
30.38,4.02
30.68,4.06
30.99,4.10
31.30,4.13
31.61,4.16
31.93,4.18
32.24,4.20
32.57,4.23
32.89,4.24
33.22,4.27
33.55,4.29
33.89,4.31
34.23,4.33
34.57,4.36
34.92,4.38
35.27,4.40
35.62,4.42
35.97,4.44
36.33,4.46
36.70,4.47
37.06,4.50
37.43,4.52
37.81,4.53
38.19,4.55
38.57,4.56
38.95,4.58
39.34,4.59
39.74,4.60
40.14,4.61
40.54,4.61
40.94,4.62
41.35,4.62
41.76,4.63
42.18,4.63
42.60,4.63
43.03,4.62
43.46,4.62
43.90,4.63
44.33,4.62
44.78,4.61
45.23,4.61
45.68,4.61
46.13,4.61
46.60,4.60
47.06,4.59
47.53,4.58
48.01,4.57
48.49,4.56
48.97,4.55
49.46,4.54
49.96,4.52
50.46,4.52
50.96,4.50
51.47,4.48
51.99,4.47
52.51,4.45
53.03,4.44
53.56,4.43
54.10,4.42
54.64,4.39
55.18,4.38
55.74,4.36
56.29,4.34
56.86,4.33
57.42,4.32
58.00,4.30
58.58,4.28
59.16,4.27
59.76,4.25
60.35,4.24
60.96,4.21
61.57,4.20
62.18,4.19
62.80,4.18
63.43,4.16
64.07,4.15
64.71,4.14
65.35,4.12
66.01,4.11
66.67,4.10
67.33,4.10
68.01,4.08
68.69,4.07
69.37,4.05
70.07,4.04
70.77,4.03
71.48,4.02
72.19,4.00
72.91,3.99
73.64,3.97
74.38,3.94
75.12,3.93
75.87,3.91
76.63,3.88
77.40,3.85
78.17,3.83
78.95,3.80
79.74,3.76
80.54,3.72
81.35,3.69
82.16,3.65
82.98,3.60
83.81,3.56
84.65,3.50
85.50,3.45
86.35,3.39
87.22,3.33
88.09,3.27
88.97,3.21
89.86,3.14
90.76,3.07
91.66,3.00
92.58,2.93
93.51,2.85
94.44,2.79
95.39,2.70
96.34,2.62
97.30,2.54
98.28,2.46
99.26,2.37
100.25,2.28
101.25,2.19
102.27,2.10
103.29,2.01
104.32,1.92
105.37,1.83
106.42,1.72
107.48,1.63
108.56,1.54
109.64,1.44
110.74,1.34
111.85,1.24
112.97,1.14
114.10,1.04
115.24,0.95
116.39,0.85
117.55,0.75
118.73,0.66
119.92,0.56
121.12,0.47
122.33,0.38
123.55,0.29
124.79,0.20
126.03,0.12
127.29,0.03
128.57,-0.05
129.85,-0.12
131.15,-0.21
132.46,-0.28
133.79,-0.35
135.12,-0.43
136.48,-0.50
137.84,-0.57
139.22,-0.64
140.61,-0.70
142.02,-0.77
143.44,-0.84
144.87,-0.90
146.32,-0.96
147.78,-1.03
149.26,-1.10
150.75,-1.17
152.26,-1.24
153.78,-1.32
155.32,-1.39
156.88,-1.47
158.44,-1.56
160.03,-1.64
161.63,-1.73
163.24,-1.82
164.88,-1.90
166.53,-2.00
168.19,-2.09
169.87,-2.19
171.57,-2.28
173.29,-2.38
175.02,-2.46
176.77,-2.55
178.54,-2.64
180.32,-2.72
182.13,-2.81
183.95,-2.89
185.79,-2.96
187.65,-3.04
189.52,-3.13
191.42,-3.19
193.33,-3.27
195.27,-3.35
197.22,-3.43
199.19,-3.50
201.18,-3.57
203.19,-3.66
205.23,-3.74
207.28,-3.81
209.35,-3.89
211.44,-3.97
213.56,-4.05
215.69,-4.14
217.85,-4.22
220.03,-4.31
222.23,-4.39
224.45,-4.48
226.70,-4.58
228.96,-4.66
231.25,-4.76
233.57,-4.85
235.90,-4.94
238.26,-5.02
240.64,-5.10
243.05,-5.18
245.48,-5.26
247.93,-5.32
250.41,-5.38
252.92,-5.44
255.45,-5.51
258.00,-5.56
260.58,-5.60
263.19,-5.65
265.82,-5.69
268.48,-5.73
271.16,-5.76
273.87,-5.80
276.61,-5.82
279.38,-5.84
282.17,-5.86
284.99,-5.87
287.84,-5.89
290.72,-5.89
293.63,-5.91
296.57,-5.92
299.53,-5.93
302.53,-5.94
305.55,-5.96
308.61,-5.96
311.69,-5.97
314.81,-5.97
317.96,-5.96
321.14,-5.93
324.35,-5.91
327.59,-5.85
330.87,-5.78
334.18,-5.70
337.52,-5.59
340.90,-5.49
344.30,-5.37
347.75,-5.25
351.23,-5.12
354.74,-5.00
358.28,-4.88
361.87,-4.76
365.49,-4.64
369.14,-4.52
372.83,-4.41
376.56,-4.28
380.33,-4.18
384.13,-4.06
387.97,-3.95
391.85,-3.83
395.77,-3.72
399.73,-3.60
403.72,-3.48
407.76,-3.37
411.84,-3.25
415.96,-3.12
420.12,-2.99
424.32,-2.87
428.56,-2.74
432.85,-2.61
437.18,-2.47
441.55,-2.34
445.96,-2.21
450.42,-2.06
454.93,-1.92
459.48,-1.77
464.07,-1.63
468.71,-1.49
473.40,-1.35
478.13,-1.21
482.91,-1.08
487.74,-0.95
492.62,-0.81
497.55,-0.68
502.52,-0.57
507.55,-0.45
512.62,-0.34
517.75,-0.23
522.93,-0.13
528.16,-0.03
533.44,0.07
538.77,0.15
544.16,0.23
549.60,0.31
555.10,0.38
560.65,0.45
566.25,0.51
571.92,0.58
577.64,0.62
583.41,0.67
589.25,0.72
595.14,0.75
601.09,0.79
607.10,0.82
613.17,0.85
619.30,0.87
625.50,0.90
631.75,0.91
638.07,0.92
644.45,0.93
650.89,0.94
657.40,0.94
663.98,0.94
670.62,0.94
677.32,0.94
684.10,0.92
690.94,0.91
697.85,0.90
704.83,0.89
711.87,0.87
718.99,0.86
726.18,0.83
733.44,0.81
740.78,0.79
748.19,0.76
755.67,0.75
763.23,0.72
770.86,0.70
778.57,0.67
786.35,0.64
794.22,0.62
802.16,0.58
810.18,0.55
818.28,0.52
826.46,0.48
834.73,0.45
843.08,0.42
851.51,0.39
860.02,0.35
868.62,0.32
877.31,0.28
886.08,0.25
894.94,0.22
903.89,0.19
912.93,0.16
922.06,0.14
931.28,0.11
940.59,0.09
950.00,0.07
959.50,0.05
969.09,0.03
978.78,0.02
988.57,0.01
998.46,0.00
1008.44,-0.01
1018.53,-0.02
1028.71,-0.03
1039.00,-0.03
1049.39,-0.04
1059.88,-0.05
1070.48,-0.06
1081.19,-0.08
1092.00,-0.09
1102.92,-0.11
1113.95,-0.13
1125.09,-0.15
1136.34,-0.18
1147.70,-0.21
1159.18,-0.25
1170.77,-0.28
1182.48,-0.31
1194.30,-0.34
1206.25,-0.37
1218.31,-0.40
1230.49,-0.44
1242.80,-0.47
1255.22,-0.50
1267.78,-0.53
1280.45,-0.57
1293.26,-0.60
1306.19,-0.64
1319.25,-0.67
1332.45,-0.70
1345.77,-0.74
1359.23,-0.77
1372.82,-0.80
1386.55,-0.83
1400.41,-0.86
1414.42,-0.89
1428.56,-0.91
1442.85,-0.94
1457.28,-0.95
1471.85,-0.97
1486.57,-0.98
1501.43,-0.98
1516.45,-0.98
1531.61,-0.98
1546.93,-0.97
1562.40,-0.96
1578.02,-0.95
1593.80,-0.93
1609.74,-0.92
1625.84,-0.92
1642.10,-0.92
1658.52,-0.93
1675.10,-0.95
1691.85,-0.96
1708.77,-0.98
1725.86,-0.99
1743.12,-1.01
1760.55,-1.02
1778.15,-1.03
1795.94,-1.03
1813.90,-1.01
1832.03,-1.00
1850.36,-0.98
1868.86,-0.95
1887.55,-0.92
1906.42,-0.89
1925.49,-0.85
1944.74,-0.81
1964.19,-0.78
1983.83,-0.74
2003.67,-0.69
2023.71,-0.64
2043.94,-0.59
2064.38,-0.53
2085.03,-0.47
2105.88,-0.40
2126.94,-0.32
2148.20,-0.24
2169.69,-0.15
2191.38,-0.06
2213.30,0.04
2235.43,0.12
2257.78,0.22
2280.36,0.30
2303.17,0.38
2326.20,0.47
2349.46,0.55
2372.95,0.68
2396.68,0.82
2420.65,0.97
2444.86,1.16
2469.31,1.35
2494.00,1.56
2518.94,1.75
2544.13,1.94
2569.57,2.11
2595.27,2.27
2621.22,2.40
2647.43,2.51
2673.90,2.61
2700.64,2.73
2727.65,2.84
2754.93,2.96
2782.48,3.07
2810.30,3.19
2838.40,3.30
2866.79,3.42
2895.46,3.52
2924.41,3.62
2953.65,3.72
2983.19,3.79
3013.02,3.85
3043.15,3.91
3073.58,3.93
3104.32,3.95
3135.36,3.95
3166.72,3.91
3198.38,3.86
3230.37,3.78
3262.67,3.65
3295.30,3.49
3328.25,3.31
3361.53,3.10
3395.15,2.89
3429.10,2.66
3463.39,2.43
3498.03,2.21
3533.01,2.00
3568.34,1.79
3604.02,1.59
3640.06,1.39
3676.46,1.17
3713.22,0.94
3750.36,0.70
3787.86,0.44
3825.74,0.16
3864.00,-0.12
3902.64,-0.42
3941.66,-0.74
3981.08,-1.07
4020.89,-1.41
4061.10,-1.76
4101.71,-2.14
4142.73,-2.52
4184.15,-2.92
4226.00,-3.36
4268.26,-3.80
4310.94,-4.26
4354.05,-4.75
4397.59,-5.26
4441.56,-5.77
4485.98,-6.25
4530.84,-6.67
4576.15,-7.04
4621.91,-7.34
4668.13,-7.56
4714.81,-7.72
4761.96,-7.81
4809.58,-7.76
4857.67,-7.58
4906.25,-7.28
4955.31,-6.73
5004.87,-6.05
5054.91,-5.29
5105.46,-4.42
5156.52,-3.54
5208.08,-2.71
5260.16,-1.98
5312.77,-1.45
5365.89,-1.06
5419.55,-0.83
5473.75,-0.75
5528.49,-0.72
5583.77,-0.72
5639.61,-0.69
5696.00,-0.61
5752.96,-0.53
5810.49,-0.39
5868.60,-0.25
5927.28,-0.09
5986.56,0.09
6046.42,0.28
6106.89,0.50
6167.96,0.74
6229.64,1.03
6291.93,1.36
6354.85,1.72
6418.40,2.11
6482.58,2.54
6547.41,2.99
6612.88,3.45
6679.01,3.92
6745.80,4.38
6813.26,4.83
6881.39,5.23
6950.21,5.58
7019.71,5.87
7089.91,6.07
7160.81,6.21
7232.41,6.26
7304.74,6.18
7377.79,6.03
7451.56,5.81
7526.08,5.50
7601.34,5.15
7677.35,4.76
7754.13,4.35
7831.67,3.93
7909.98,3.51
7989.08,3.12
8068.98,2.80
8149.67,2.51
8231.16,2.33
8313.47,2.25
8396.61,2.23
8480.57,2.26
8565.38,2.28
8651.03,2.28
8737.54,2.22
8824.92,2.00
8913.17,1.65
9002.30,1.17
9092.32,0.49
9183.25,-0.33
9275.08,-1.25
9367.83,-2.28
9461.51,-3.34
9556.12,-4.42
9651.68,-5.47
9748.20,-6.45
9845.68,-7.35
9944.14,-8.19
10043.58,-8.88
10144.02,-9.49
10245.46,-10.05
10347.91,-10.53
10451.39,-11.00
10555.91,-11.43
10661.46,-11.82
10768.08,-12.13
10875.76,-12.39
10984.52,-12.55
11094.36,-12.61
11205.31,-12.60
11317.36,-12.51
11430.53,-12.40
11544.84,-12.31
11660.29,-12.25
11776.89,-12.19
11894.66,-12.13
12013.60,-12.07
12133.74,-11.96
12255.08,-11.77
12377.63,-11.52
12501.41,-11.19
12626.42,-10.81
12752.68,-10.43
12880.21,-10.07
13009.01,-9.80
13139.10,-9.60
13270.49,-9.51
13403.20,-9.51
13537.23,-9.58
13672.60,-9.72
13809.33,-9.97
13947.42,-10.26
14086.90,-10.59
14227.77,-10.90
14370.04,-11.20
14513.74,-11.48
14658.88,-11.76
14805.47,-11.89
14953.52,-11.91
15103.06,-11.76
15254.09,-11.39
15406.63,-10.91
15560.70,-10.33
15716.30,-9.74
15873.47,-9.25
16032.20,-8.85
16192.52,-8.72
16354.45,-8.79
16517.99,-9.05
16683.17,-9.61
16850.01,-10.30
17018.51,-11.03
17188.69,-11.77
17360.58,-12.42
17534.18,-13.03
17709.53,-13.53
17886.62,-13.89
18065.49,-14.20
18246.14,-14.46
18428.60,-14.69
18612.89,-14.92
18799.02,-15.16
18987.01,-15.48
19176.88,-15.87
19368.65,-16.31
19562.33,-16.83
19757.96,-17.31
19955.54,-17.74
