frequency,raw
20.00,2.42
20.20,2.45
20.40,2.48
20.61,2.51
20.81,2.53
21.02,2.56
21.23,2.59
21.44,2.62
21.66,2.65
21.87,2.68
22.09,2.71
22.31,2.74
22.54,2.77
22.76,2.80
22.99,2.83
23.22,2.86
23.45,2.89
23.69,2.93
23.92,2.96
24.16,3.00
24.40,3.04
24.65,3.09
24.89,3.13
25.14,3.17
25.39,3.21
25.65,3.25
25.91,3.30
26.16,3.33
26.43,3.37
26.69,3.41
26.96,3.44
27.23,3.48
27.50,3.53
27.77,3.57
28.05,3.61
28.33,3.65
28.62,3.69
28.90,3.73
29.19,3.77
29.48,3.80
29.78,3.84
30.08,3.88
30.38,3.92
30.68,3.96
30.99,4.00
31.30,4.02
31.61,4.05
31.93,4.07
32.24,4.10
32.57,4.12
32.89,4.14
33.22,4.17
33.55,4.19
33.89,4.21
34.23,4.23
34.57,4.25
34.92,4.28
35.27,4.30
35.62,4.32
35.97,4.34
36.33,4.36
36.70,4.38
37.06,4.39
37.43,4.41
37.81,4.43
38.19,4.45
38.57,4.46
38.95,4.48
39.34,4.49
39.74,4.49
40.14,4.50
40.54,4.51
40.94,4.52
41.35,4.52
41.76,4.53
42.18,4.53
42.60,4.53
43.03,4.53
43.46,4.53
43.90,4.52
44.33,4.52
44.78,4.52
45.23,4.52
45.68,4.51
46.13,4.50
46.60,4.49
47.06,4.49
47.53,4.48
48.01,4.47
48.49,4.46
48.97,4.45
49.46,4.44
49.96,4.42
50.46,4.41
50.96,4.40
51.47,4.39
51.99,4.37
52.51,4.35
53.03,4.34
53.56,4.32
54.10,4.31
54.64,4.30
55.18,4.28
55.74,4.27
56.29,4.25
56.86,4.23
57.42,4.22
58.00,4.20
58.58,4.19
59.16,4.18
59.76,4.16
60.35,4.15
60.96,4.14
61.57,4.13
62.18,4.13
62.80,4.13
63.43,4.13
64.07,4.13
64.71,4.12
65.35,4.11
66.01,4.10
66.67,4.08
67.33,4.06
68.01,4.04
68.69,4.02
69.37,4.00
70.07,3.98
70.77,3.96
71.48,3.94
72.19,3.93
72.91,3.91
73.64,3.90
74.38,3.89
75.12,3.88
75.87,3.85
76.63,3.82
77.40,3.78
78.17,3.75
78.95,3.72
79.74,3.70
80.54,3.67
81.35,3.63
82.16,3.59
82.98,3.54
83.81,3.49
84.65,3.44
85.50,3.39
86.35,3.33
87.22,3.26
88.09,3.20
88.97,3.15
89.86,3.08
90.76,3.01
91.66,2.94
92.58,2.87
93.51,2.80
94.44,2.72
95.39,2.64
96.34,2.57
97.30,2.49
98.28,2.41
99.26,2.31
100.25,2.21
101.25,2.11
102.27,2.00
103.29,1.91
104.32,1.81
105.37,1.72
106.42,1.64
107.48,1.55
108.56,1.47
109.64,1.38
110.74,1.28
111.85,1.18
112.97,1.08
114.10,0.97
115.24,0.88
116.39,0.77
117.55,0.67
118.73,0.57
119.92,0.49
121.12,0.40
122.33,0.34
123.55,0.27
124.79,0.19
126.03,0.11
127.29,0.01
128.57,-0.09
129.85,-0.20
131.15,-0.28
132.46,-0.36
133.79,-0.41
135.12,-0.47
136.48,-0.53
137.84,-0.59
139.22,-0.67
140.61,-0.75
142.02,-0.83
143.44,-0.90
144.87,-0.97
146.32,-1.03
147.78,-1.08
149.26,-1.13
150.75,-1.19
152.26,-1.26
153.78,-1.35
155.32,-1.44
156.88,-1.53
158.44,-1.63
160.03,-1.71
161.63,-1.78
163.24,-1.86
164.88,-1.94
166.53,-2.03
168.19,-2.12
169.87,-2.22
171.57,-2.33
173.29,-2.44
175.02,-2.53
176.77,-2.64
178.54,-2.73
180.32,-2.83
182.13,-2.91
183.95,-2.99
185.79,-3.05
187.65,-3.11
189.52,-3.17
191.42,-3.25
193.33,-3.33
195.27,-3.42
197.22,-3.51
199.19,-3.60
201.18,-3.69
203.19,-3.77
205.23,-3.84
207.28,-3.92
209.35,-3.99
211.44,-4.06
213.56,-4.13
215.69,-4.19
217.85,-4.26
220.03,-4.34
222.23,-4.44
224.45,-4.54
226.70,-4.64
228.96,-4.75
231.25,-4.85
233.57,-4.94
235.90,-5.03
238.26,-5.11
240.64,-5.19
243.05,-5.26
245.48,-5.33
247.93,-5.40
250.41,-5.46
252.92,-5.52
255.45,-5.58
258.00,-5.63
260.58,-5.68
263.19,-5.73
265.82,-5.77
268.48,-5.80
271.16,-5.84
273.87,-5.87
276.61,-5.90
279.38,-5.92
282.17,-5.93
284.99,-5.94
287.84,-5.96
290.72,-5.97
293.63,-5.98
296.57,-5.99
299.53,-6.00
302.53,-6.01
305.55,-6.02
308.61,-6.03
311.69,-6.04
314.81,-6.04
317.96,-6.03
321.14,-6.02
324.35,-5.98
327.59,-5.92
330.87,-5.85
334.18,-5.76
337.52,-5.66
340.90,-5.55
344.30,-5.43
347.75,-5.30
351.23,-5.17
354.74,-5.04
358.28,-4.92
361.87,-4.80
365.49,-4.68
369.14,-4.56
372.83,-4.44
376.56,-4.32
380.33,-4.21
384.13,-4.10
387.97,-3.99
391.85,-3.87
395.77,-3.76
399.73,-3.64
403.72,-3.53
407.76,-3.41
411.84,-3.29
415.96,-3.17
420.12,-3.05
424.32,-2.92
428.56,-2.80
432.85,-2.68
437.18,-2.55
441.55,-2.43
445.96,-2.31
450.42,-2.17
454.93,-2.01
459.48,-1.85
464.07,-1.67
468.71,-1.50
473.40,-1.34
478.13,-1.20
482.91,-1.07
487.74,-0.96
492.62,-0.84
497.55,-0.72
502.52,-0.61
507.55,-0.49
512.62,-0.37
517.75,-0.26
522.93,-0.15
528.16,-0.06
533.44,0.04
538.77,0.12
544.16,0.20
549.60,0.27
555.10,0.35
560.65,0.41
566.25,0.47
571.92,0.53
577.64,0.58
583.41,0.63
589.25,0.68
595.14,0.71
601.09,0.75
607.10,0.78
613.17,0.81
619.30,0.83
625.50,0.85
631.75,0.87
638.07,0.88
644.45,0.89
650.89,0.90
657.40,0.90
663.98,0.90
670.62,0.89
677.32,0.88
684.10,0.87
690.94,0.86
697.85,0.84
704.83,0.82
711.87,0.79
718.99,0.77
726.18,0.76
733.44,0.75
740.78,0.76
748.19,0.75
755.67,0.75
763.23,0.73
770.86,0.71
778.57,0.67
786.35,0.64
794.22,0.59
802.16,0.54
810.18,0.49
818.28,0.44
826.46,0.39
834.73,0.35
843.08,0.32
851.51,0.29
860.02,0.27
868.62,0.26
877.31,0.23
886.08,0.21
894.94,0.17
903.89,0.14
912.93,0.11
922.06,0.08
931.28,0.05
940.59,0.02
950.00,0.01
959.50,-0.01
969.09,-0.01
978.78,0.00
988.57,0.00
998.46,0.00
1008.44,-0.00
1018.53,-0.01
1028.71,-0.03
1039.00,-0.05
1049.39,-0.07
1059.88,-0.09
1070.48,-0.10
1081.19,-0.11
1092.00,-0.13
1102.92,-0.15
1113.95,-0.17
1125.09,-0.20
1136.34,-0.23
1147.70,-0.26
1159.18,-0.29
1170.77,-0.32
1182.48,-0.34
1194.30,-0.36
1206.25,-0.37
1218.31,-0.39
1230.49,-0.43
1242.80,-0.47
1255.22,-0.52
1267.78,-0.56
1280.45,-0.59
1293.26,-0.64
1306.19,-0.69
1319.25,-0.73
1332.45,-0.77
1345.77,-0.81
1359.23,-0.84
1372.82,-0.88
1386.55,-0.91
1400.41,-0.92
1414.42,-0.94
1428.56,-0.93
1442.85,-0.93
1457.28,-0.94
1471.85,-0.95
1486.57,-0.96
1501.43,-0.98
1516.45,-0.99
1531.61,-1.00
1546.93,-1.00
1562.40,-1.00
1578.02,-0.99
1593.80,-0.98
1609.74,-0.97
1625.84,-0.97
1642.10,-0.98
1658.52,-0.98
1675.10,-0.99
1691.85,-1.00
1708.77,-1.02
1725.86,-1.03
1743.12,-1.03
1760.55,-1.03
1778.15,-1.03
1795.94,-1.02
1813.90,-1.01
1832.03,-1.01
1850.36,-1.00
1868.86,-0.98
1887.55,-0.95
1906.42,-0.92
1925.49,-0.87
1944.74,-0.84
1964.19,-0.80
1983.83,-0.76
2003.67,-0.71
2023.71,-0.64
2043.94,-0.58
2064.38,-0.51
2085.03,-0.44
2105.88,-0.37
2126.94,-0.29
2148.20,-0.20
2169.69,-0.11
2191.38,-0.02
2213.30,0.09
2235.43,0.18
2257.78,0.28
2280.36,0.36
2303.17,0.44
2326.20,0.49
2349.46,0.55
2372.95,0.61
2396.68,0.74
2420.65,0.90
2444.86,1.11
2469.31,1.36
2494.00,1.61
2518.94,1.85
2544.13,2.06
2569.57,2.22
2595.27,2.35
2621.22,2.46
2647.43,2.54
2673.90,2.63
2700.64,2.72
2727.65,2.80
2754.93,2.90
2782.48,3.00
2810.30,3.11
2838.40,3.22
2866.79,3.33
2895.46,3.44
2924.41,3.54
2953.65,3.62
2983.19,3.70
3013.02,3.77
3043.15,3.85
3073.58,3.90
3104.32,3.93
3135.36,3.93
3166.72,3.89
3198.38,3.80
3230.37,3.69
3262.67,3.54
3295.30,3.36
3328.25,3.14
3361.53,2.93
3395.15,2.70
3429.10,2.50
3463.39,2.30
3498.03,2.13
3533.01,1.96
3568.34,1.79
3604.02,1.61
3640.06,1.41
3676.46,1.19
3713.22,0.94
3750.36,0.66
3787.86,0.36
3825.74,0.06
3864.00,-0.24
3902.64,-0.55
3941.66,-0.86
3981.08,-1.19
4020.89,-1.53
4061.10,-1.88
4101.71,-2.26
4142.73,-2.66
4184.15,-3.08
4226.00,-3.52
4268.26,-3.97
4310.94,-4.44
4354.05,-4.89
4397.59,-5.36
4441.56,-5.83
4485.98,-6.30
4530.84,-6.73
4576.15,-7.10
4621.91,-7.41
4668.13,-7.59
4714.81,-7.69
4761.96,-7.74
4809.58,-7.75
4857.67,-7.68
4906.25,-7.51
4955.31,-7.15
5004.87,-6.48
5054.91,-5.58
5105.46,-4.52
5156.52,-3.42
5208.08,-2.45
5260.16,-1.65
5312.77,-1.19
5365.89,-0.93
5419.55,-0.80
5473.75,-0.80
5528.49,-0.80
5583.77,-0.79
5639.61,-0.77
5696.00,-0.72
5752.96,-0.65
5810.49,-0.56
5868.60,-0.44
5927.28,-0.31
5986.56,-0.17
6046.42,0.01
6106.89,0.22
6167.96,0.45
6229.64,0.73
6291.93,1.05
6354.85,1.41
6418.40,1.85
6482.58,2.32
6547.41,2.83
6612.88,3.33
6679.01,3.83
6745.80,4.32
6813.26,4.81
6881.39,5.25
6950.21,5.66
7019.71,6.03
7089.91,6.27
7160.81,6.44
7232.41,6.49
7304.74,6.40
7377.79,6.21
7451.56,5.93
7526.08,5.58
7601.34,5.19
7677.35,4.77
7754.13,4.35
7831.67,3.94
7909.98,3.56
7989.08,3.19
8068.98,2.88
8149.67,2.62
8231.16,2.41
8313.47,2.28
8396.61,2.21
8480.57,2.16
8565.38,2.15
8651.03,2.09
8737.54,1.94
8824.92,1.63
8913.17,1.29
9002.30,0.79
9092.32,-0.03
9183.25,-0.79
9275.08,-1.49
9367.83,-2.58
9461.51,-3.82
9556.12,-4.94
9651.68,-6.00
9748.20,-6.98
9845.68,-7.88
9944.14,-8.67
10043.58,-9.30
10144.02,-9.79
10245.46,-10.19
10347.91,-10.58
10451.39,-10.99
10555.91,-11.38
10661.46,-11.73
10768.08,-12.06
10875.76,-12.34
10984.52,-12.56
11094.36,-12.59
11205.31,-12.47
11317.36,-12.15
11430.53,-11.68
11544.84,-11.76
11660.29,-12.17
11776.89,-12.10
11894.66,-12.21
12013.60,-12.51
12133.74,-12.40
12255.08,-12.22
12377.63,-11.95
12501.41,-11.52
12626.42,-11.05
12752.68,-10.64
12880.21,-10.30
13009.01,-10.07
13139.10,-9.93
13270.49,-9.79
13403.20,-9.66
13537.23,-9.65
13672.60,-9.74
13809.33,-10.02
13947.42,-10.36
14086.90,-10.73
14227.77,-11.12
14370.04,-11.50
14513.74,-11.82
14658.88,-12.08
14805.47,-12.21
14953.52,-12.22
15103.06,-12.14
15254.09,-11.85
15406.63,-11.34
15560.70,-10.67
15716.30,-9.88
15873.47,-9.16
16032.20,-8.61
16192.52,-8.38
16354.45,-8.54
16517.99,-8.98
16683.17,-9.65
16850.01,-10.48
17018.51,-11.31
17188.69,-12.10
17360.58,-12.75
17534.18,-13.32
17709.53,-13.80
17886.62,-14.17
18065.49,-14.47
18246.14,-14.71
18428.60,-14.90
18612.89,-15.08
18799.02,-15.28
18987.01,-15.53
19176.88,-15.90
19368.65,-16.36
19562.33,-16.91
19757.96,-17.51
19955.54,-18.07
