GraphicEQ: 20 -9.1; 21 -9.3; 22 -9.4; 23 -9.6; 24 -9.7; 26 -10.0; 27 -10.2; 29 -10.5; 30 -10.6; 32 -10.9; 34 -11.0; 36 -11.2; 38 -11.3; 40 -11.4; 43 -11.5; 45 -11.5; 48 -11.5; 50 -11.5; 53 -11.5; 56 -11.4; 59 -11.4; 63 -11.5; 66 -11.5; 70 -11.6; 74 -11.6; 78 -11.6; 83 -11.6; 87 -11.5; 92 -11.3; 97 -11.0; 103 -10.7; 109 -10.4; 115 -10.0; 121 -9.7; 128 -9.3; 136 -9.0; 143 -8.8; 151 -8.6; 160 -8.2; 169 -7.8; 178 -7.4; 188 -7.1; 199 -6.7; 210 -6.3; 222 -5.9; 235 -5.4; 248 -5.0; 262 -4.8; 277 -4.6; 292 -4.5; 309 -4.5; 326 -4.7; 345 -5.1; 364 -5.8; 385 -6.5; 406 -7.1; 429 -7.8; 453 -8.5; 479 -9.3; 506 -9.9; 534 -10.4; 565 -10.7; 596 -10.8; 630 -10.7; 665 -10.6; 703 -10.3; 743 -10.0; 784 -9.7; 829 -9.3; 875 -9.0; 924 -8.7; 977 -8.4; 1032 -8.2; 1090 -8.0; 1151 -7.7; 1216 -7.3; 1284 -7.0; 1357 -6.6; 1433 -6.2; 1514 -6.0; 1599 -5.7; 1689 -5.5; 1784 -5.2; 1885 -4.9; 1991 -4.7; 2103 -4.5; 2221 -4.2; 2347 -3.8; 2479 -3.7; 2618 -3.7; 2766 -3.9; 2921 -4.1; 3086 -4.3; 3260 -4.4; 3443 -4.0; 3637 -3.5; 3842 -2.7; 4058 -1.6; 4287 -0.7; 4528 -0.5; 4783 -0.5; 5052 -1.3; 5337 -3.1; 5637 -4.6; 5955 -5.7; 6290 -7.2; 6644 -9.3; 7018 -11.6; 7414 -12.3; 7831 -10.5; 8272 -8.1; 8738 -6.7; 9230 -6.5; 9749 -6.5; 10298 -6.5; 10878 -6.5; 11490 -6.5; 12137 -6.5; 12821 -6.5; 13543 -6.5; 14305 -6.5; 15110 -6.5; 15961 -7.2; 16860 -7.6; 17809 -7.0; 18812 -7.6; 19871 -9.1